-0.284055
-0.323426
-0.060101
-1.337633
-0.339438
-0.255209
-0.831654
-0.518545
-0.219038
-1.213183
-0.963804
0.044424
-0.103746
-0.953634
-1.083206
0.222990
0.196231
-0.670617
0.047428
-0.881041
-0.420312
-0.586215
-0.368499
-0.506555
-1.395885
-0.105488
-0.450084
0.569809
0.388359
-0.488199
-0.387389
-0.591992
-0.593920
-2.367495
-1.094095
-0.210618
-0.890307
-0.810955
-0.173741
-1.360532
-1.568740
-0.773822
-0.338210
-0.605687
-0.667263
0.402953
-1.526160
-0.932214
-0.575137
0.559653
-1.118569
-0.347715
0.169367
-2.019457
-1.438776
0.359434
-1.149692
-0.353823
-0.674161
-0.732959
-0.369254
-1.248525
-1.066039
-1.040345
1.000000
1.000000
1.000000
1.000000
1.000000
1.000000
1.000000
1.000000
1.000000
1.000000
1.000000
1.000000
1.000000
1.000000
1.000000
1.000000
1.000000
1.000000
1.000000
1.000000
1.000000
1.000000
1.000000
1.000000
1.000000
1.000000
1.000000
1.000000
1.000000
1.000000
1.000000
1.000000
1.000000
1.000000
1.000000
1.000000
1.000000
1.000000
1.000000
1.000000
1.000000
1.000000
1.000000
1.000000
1.000000
1.000000
1.000000
1.000000
1.000000
1.000000
1.000000
1.000000
1.000000
1.000000
1.000000
1.000000
1.000000
1.000000
1.000000
1.000000
1.000000
1.000000
1.000000
1.000000
0.287746
0.954207
1.364924
0.649541
0.942212
-1.361060
0.421574
0.744672
1.149488
-0.393997
0.914563
0.969421
0.188448
0.758249
-0.548188
1.595515
1.260527
-1.025469
0.013312
0.117127
0.382797
0.639636
-0.224557
0.682465
0.746701
-1.046705
-0.539971
0.633465
-1.294674
-0.488371
0.075409
-0.136366
-0.503140
-3.033542
-1.320224
-1.062596
0.045940
-0.636222
0.929498
1.150521
0.440441
-0.788696
2.141606
-0.340353
0.315750
-1.039722
-0.078495
-0.152005
0.987580
-1.459220
0.461523
0.283205
0.045121
-0.645684
-1.134105
1.218103
-1.183726
-0.589287
0.167097
0.123975
-1.109262
-0.067557
-0.116573
-0.880782
-0.353251
-0.110560
-0.477999
-1.200214
-0.084899
0.038361
-0.690374
-0.590543
-0.359516
-1.192716
-0.846732
0.181605
-0.001623
-0.869437
-1.372835
0.208173
0.082860
-0.747392
0.361278
-0.786230
-0.380686
-0.462099
-0.467987
-0.485800
-1.234440
-0.089741
0.023103
0.343098
-0.630567
-0.491677
-0.342212
-0.215042
-0.578367
-2.092808
-1.104677
-0.069998
-1.073167
-0.676768
0.067752
-1.260960
-1.323843
-0.844863
-0.296685
-0.551655
-0.748149
0.038670
-1.268394
-0.752438
-0.432401
0.616095
-1.075623
-0.481997
-0.047227
-1.933145
-1.327079
0.507065
-1.096879
-0.392360
-0.593537
-0.662678
-0.242421
-1.030568
-0.991497
-0.925813
