2.265475
1.897589
0.571733
-1.068208
0.757847
1.370558
1.684333
1.422175
-0.070991
0.517233
0.351199
-0.810381
-0.164368
2.467720
-0.095179
1.625261
1.505311
1.121725
-0.205380
0.994799
1.328966
2.809064
0.071690
2.174430
1.812569
1.104111
0.929266
0.379806
1.957545
0.969007
1.054025
2.344080
1.000000
1.000000
1.000000
1.000000
1.000000
1.000000
1.000000
1.000000
1.000000
1.000000
1.000000
1.000000
1.000000
1.000000
1.000000
1.000000
1.000000
1.000000
1.000000
1.000000
1.000000
1.000000
1.000000
1.000000
1.000000
1.000000
1.000000
1.000000
1.000000
1.000000
1.000000
1.000000
-0.543981
0.468157
-0.570329
0.778994
-0.037415
0.632307
-0.567736
-0.562393
-1.022976
0.370343
-0.499000
-0.286804
-0.618023
-0.008475
-0.722342
0.664959
0.352386
-0.595508
0.487419
-0.420013
0.767762
-0.203915
-0.662054
-0.521216
0.721696
-0.472541
0.599835
0.382201
0.533172
0.686074
-0.099389
-0.506152
1.659712
1.252058
1.095374
-2.915770
0.471533
0.381994
0.645636
1.050025
-0.118713
0.106552
-0.571285
-2.526701
-0.787586
1.561330
-0.826814
1.211561
0.988994
1.096062
0.309469
1.308080
0.299018
1.130046
-0.185655
0.968924
0.912229
-1.339005
0.304320
0.737086
1.089062
0.895792
0.724332
0.390257
